{"learner":{"attributes":{"scikit_learn":"{\"_estimator_type\": \"classifier\"}"},"feature_names":[],"feature_types":[],"gradient_booster":{"model":{"gbtree_model_param":{"num_parallel_tree":"1","num_trees":"100"},"iteration_indptr":[0,1,2,3,4,5,6,7,8,9,10,11,12,13,14,15,16,17,18,19,20,21,22,23,24,25,26,27,28,29,30,31,32,33,34,35,36,37,38,39,40,41,42,43,44,45,46,47,48,49,50,51,52,53,54,55,56,57,58,59,60,61,62,63,64,65,66,67,68,69,70,71,72,73,74,75,76,77,78,79,80,81,82,83,84,85,86,87,88,89,90,91,92,93,94,95,96,97,98,99,100],"tree_info":[0,0,0,0,0,0,0,0,0,0,0,0,0,0,0,0,0,0,0,0,0,0,0,0,0,0,0,0,0,0,0,0,0,0,0,0,0,0,0,0,0,0,0,0,0,0,0,0,0,0,0,0,0,0,0,0,0,0,0,0,0,0,0,0,0,0,0,0,0,0,0,0,0,0,0,0,0,0,0,0,0,0,0,0,0,0,0,0,0,0,0,0,0,0,0,0,0,0,0,0],"trees":[{"base_weights":[-5.218548E-7,-1.9043835E0,1.8551148E0,4.3250096E-1,-1.9448662E0,1.9976468E0,-5.073009E-1,-1.9612727E0,2.0304571E-1,-6.3633256E-2,6.030004E-1,-5.921037E-1,6.970623E-2],"categories":[],"categories_nodes":[],"categories_segments":[],"categories_sizes":[],"default_left":[1,0,1,0,1,0,0,1,0,0,0,0,0],"id":0,"left_children":[1,3,5,-1,7,9,-1,11,-1,-1,-1,-1,-1],"loss_changes":[1.7521487E3,3.5954224E1,1.303581E2,0E0,1.174646E1,7.0325317E0,0E0,7.0167847E0,0E0,0E0,0E0,0E0,0E0],"parents":[2147483647,0,0,1,1,2,2,4,4,5,5,7,7],"right_children":[2,4,6,-1,8,10,-1,12,-1,-1,-1,-1,-1],"split_conditions":[7.6666754E-3,2.9305333E-2,3.1710047E-2,4.3250096E-1,2.3594763E-2,7.826843E-3,-5.073009E-1,1.6987635E-2,2.0304571E-1,-6.3633256E-2,6.030004E-1,-5.921037E-1,6.970623E-2],"split_indices":[86020,86074,82654,0,81553,58198,0,86012,0,0,0,0,0],"split_type":[0,0,0,0,0,0,0,0,0,0,0,0,0],"sum_hessian":[4.9395898E2,2.4372977E2,2.5022922E2,2.4997923E0,2.4122997E2,2.4098E2,9.249232E0,2.3998007E2,1.2498962E0,1.2498962E0,2.3973009E2,2.3873018E2,1.2498962E0],"tree_param":{"num_deleted":"0","num_feature":"211024","num_nodes":"13","size_leaf_vector":"1"}},{"base_weights":[-9.820026E-4,-1.4771774E0,1.4270684E0,3.5151744E-1,-1.511146E0,1.5397164E0,-1.3224363E0,-1.5264987E0,2.0644681E-1,-9.8216526E-2,4.6541542E-1,-4.2102793E-1,-1.18727304E-1,-4.6140775E-1,-1.4631168E-3],"categories":[],"categories_nodes":[],"categories_segments":[],"categories_sizes":[],"default_left":[1,0,1,0,1,0,1,1,0,0,0,0,0,0,0],"id":1,"left_children":[1,3,5,-1,7,9,11,13,-1,-1,-1,-1,-1,-1,-1],"loss_changes":[9.5910675E2,2.1900055E1,7.3661865E1,0E0,8.523285E0,5.357788E0,1.6805458E-1,3.8529053E0,0E0,0E0,0E0,0E0,0E0,0E0,0E0],"parents":[2147483647,0,0,1,1,2,2,4,4,5,5,6,6,7,7],"right_children":[2,4,6,-1,8,10,12,14,-1,-1,-1,-1,-1,-1,-1],"split_conditions":[7.6666754E-3,2.9305333E-2,3.1710047E-2,3.5151744E-1,1.7360767E-2,2.2872742E-2,8.553232E-3,2.3158655E-2,2.0644681E-1,-9.8216526E-2,4.6541542E-1,-4.2102793E-1,-1.18727304E-1,-4.6140775E-1,-1.4631168E-3],"split_indices":[86020,86074,82654,0,159949,59333,29657,81859,0,0,0,0,0,0,0],"split_type":[0,0,0,0,0,0,0,0,0,0,0,0,0,0,0],"sum_hessian":[4.529667E2,2.227119E2,2.3025479E2,2.3957267E0,2.2031618E2,2.2161514E2,8.63964E0,2.1909267E2,1.2235146E0,1.2083223E0,2.2040683E2,7.4721212E0,1.167519E0,2.1743471E2,1.6579554E0],"tree_param":{"num_deleted":"0","num_feature":"211024","num_nodes":"15","size_leaf_vector":"1"}},{"base_weights":[-1.3865555E-3,-1.2767891E0,1.2296433E0,3.006967E-1,-1.3088793E0,1.3314471E0,-1.1275876E0,-1.3255323E0,2.105471E-1,-1.1940074E-1,4.032364E-1,-6.8317845E-2,-3.6613405E-1,-4.0136948E-1,1.1115027E-1],"categories":[],"categories_nodes":[],"categories_segments":[],"categories_sizes":[],"default_left":[1,0,1,0,1,0,0,1,0,0,0,0,0,0,0],"id":2,"left_children":[1,3,5,-1,7,9,11,13,-1,-1,-1,-1,-1,-1,-1],"loss_changes":[5.9865924E2,1.5008484E1,4.8062317E1,0E0,7.1284485E0,4.6217957E0,4.385233E-1,4.3533325E0,0E0,0E0,0E0,0E0,0E0,0E0,0E0],"parents":[2147483647,0,0,1,1,2,2,4,4,5,5,6,6,7,7],"right_children":[2,4,6,-1,8,10,12,14,-1,-1,-1,-1,-1,-1,-1],"split_conditions":[7.6666754E-3,2.9305333E-2,3.1710047E-2,3.006967E-1,1.838464E-2,1.1175412E-2,3.8354587E-2,2.0260358E-2,2.105471E-1,-1.1940074E-1,4.032364E-1,-6.8317845E-2,-3.6613405E-1,-4.0136948E-1,1.1115027E-1],"split_indices":[86020,86074,82654,0,167039,76469,29779,59003,0,0,0,0,0,0,0],"split_type":[0,0,0,0,0,0,0,0,0,0,0,0,0,0,0],"sum_hessian":[3.792974E2,1.86273E2,1.930244E2,2.16653E0,1.8410646E2,1.8545036E2,7.5740438E0,1.8293214E2,1.1743233E0,1.1279715E0,1.8432239E2,1.0314131E0,6.5426307E0,1.8181764E2,1.1144911E0],"tree_param":{"num_deleted":"0","num_feature":"211024","num_nodes":"15","size_leaf_vector":"1"}},{"base_weights":[-1.2093205E-3,-1.1589723E0,1.1149147E0,-1.2089128E0,3.1006426E-1,-3.4557453E-1,1.2096916E0,-3.660422E-1,4.775974E-2,-2.3801537E-1,3.072856E-1,3.689193E-1,-2.100602E-1],"categories":[],"categories_nodes":[],"categories_segments":[],"categories_sizes":[],"default_left":[1,1,0,1,0,0,1,0,0,0,0,0,0],"id":3,"left_children":[1,3,5,7,9,-1,11,-1,-1,-1,-1,-1,-1],"loss_changes":[3.9618893E2,1.1415604E1,3.493199E1,2.4330444E0,5.339302E0,0E0,6.6146393E0,0E0,0E0,0E0,0E0,0E0,0E0],"parents":[2147483647,0,0,1,1,2,2,3,3,4,4,6,6],"right_children":[2,4,6,8,10,-1,12,-1,-1,-1,-1,-1,-1],"split_conditions":[7.6666754E-3,1.3876107E-2,1.0641129E-2,1.0509013E-2,2.6509648E-2,-3.4557453E-1,4.333893E-2,-3.660422E-1,4.775974E-2,-2.3801537E-1,3.072856E-1,3.689193E-1,-2.100602E-1],"split_indices":[86020,138890,8981,104705,42525,0,82654,0,0,0,0,0,0],"split_type":[0,0,0,0,0,0,0,0,0,0,0,0,0],"sum_hessian":[3.045987E2,1.4949164E2,1.5510707E2,1.4474792E2,4.7437043E0,5.7771826E0,1.493299E2,1.4367697E2,1.0709606E0,1.820402E0,2.9233024E0,1.4813176E2,1.1981357E0],"tree_param":{"num_deleted":"0","num_feature":"211024","num_nodes":"13","size_leaf_vector":"1"}},{"base_weights":[-2.6325819E-3,-1.0812122E0,1.0409921E0,-1.1290708E0,4.3841848E-1,-3.109706E-1,1.1340054E0,-1.1449358E0,9.424039E-2,-1.7932144E-1,2.873912E-1,3.4663397E-1,-1.8983383E-1,-3.454892E-1,-6.5786146E-2],"categories":[],"categories_nodes":[],"categories_segments":[],"categories_sizes":[],"default_left":[1,1,0,1,0,0,1,1,0,0,0,0,0,0,0],"id":4,"left_children":[1,3,5,7,9,-1,11,13,-1,-1,-1,-1,-1,-1,-1],"loss_changes":[2.713452E2,9.116364E0,2.4850677E1,2.9974365E0,2.9088259E0,0E0,5.191513E0,4.5495605E-1,0E0,0E0,0E0,0E0,0E0,0E0,0E0],"parents":[2147483647,0,0,1,1,2,2,3,3,4,4,6,6,7,7],"right_children":[2,4,6,8,10,-1,12,14,-1,-1,-1,-1,-1,-1,-1],"split_conditions":[7.6666754E-3,1.4051181E-2,1.0641129E-2,2.7597852E-2,6.4304825E-3,-3.109706E-1,4.333893E-2,1.2277342E-2,9.424039E-2,-1.7932144E-1,2.873912E-1,3.4663397E-1,-1.8983383E-1,-3.454892E-1,-6.5786146E-2],"split_indices":[86020,68189,8981,76656,13709,0,82654,82362,0,0,0,0,0,0,0],"split_type":[0,0,0,0,0,0,0,0,0,0,0,0,0,0,0],"sum_hessian":[2.3906033E2,1.1754367E2,1.2151666E2,1.14203995E2,3.3396766E0,4.7725167E0,1.1674415E2,1.1316663E2,1.0373652E0,1.0650774E0,2.274599E0,1.15686226E2,1.0579171E0,1.1211165E2,1.0549796E0],"tree_param":{"num_deleted":"0","num_feature":"211024","num_nodes":"15","size_leaf_vector":"1"}},{"base_weights":[-4.1181785E-3,-1.0248228E0,9.882606E-1,2.2820549E-1,-1.0634835E0,-2.7377692E-1,1.085102E0,-1.0867609E0,1.4948356E-1,-9.4351344E-2,3.3155698E-1,-3.3084846E-1,5.0175734E-2],"categories":[],"categories_nodes":[],"categories_segments":[],"categories_sizes":[],"default_left":[1,0,0,0,1,0,0,1,0,0,0,0,0],"id":5,"left_children":[1,3,5,-1,7,-1,9,11,-1,-1,-1,-1,-1],"loss_changes":[1.8945952E2,7.1736526E0,1.844828E1,0E0,3.837555E0,0E0,2.8975983E0,1.9907455E0,0E0,0E0,0E0,0E0,0E0],"parents":[2147483647,0,0,1,1,2,2,4,4,6,6,7,7],"right_children":[2,4,6,-1,8,-1,10,12,-1,-1,-1,-1,-1],"split_conditions":[7.6666754E-3,2.9305333E-2,1.7230012E-1,2.2820549E-1,1.9357014E-2,-2.7377692E-1,1.1190736E-2,1.7823933E-2,1.4948356E-1,-9.4351344E-2,3.3155698E-1,-3.3084846E-1,5.0175734E-2],"split_indices":[86020,86074,187379,0,82680,0,59760,68189,0,0,0,0,0],"split_type":[0,0,0,0,0,0,0,0,0,0,0,0,0],"sum_hessian":[1.85042E2,9.120303E1,9.383897E1,1.5371066E0,8.9665924E1,4.1406493E0,8.969832E1,8.8648796E1,1.0171281E0,1.0618094E0,8.863651E1,8.764637E1,1.0024304E0],"tree_param":{"num_deleted":"0","num_feature":"211024","num_nodes":"13","size_leaf_vector":"1"}},{"base_weights":[-3.5181975E-3,-9.7855437E-1,9.461345E-1,-1.0430562E0,3.340379E-1,-2.647613E-1,1.0445936E0,-3.1869683E-1,3.1944335E-2,-1.6620597E-1,2.4092434E-1,3.2017165E-1,-7.15901E-2],"categories":[],"categories_nodes":[],"categories_segments":[],"categories_sizes":[],"default_left":[1,1,0,1,0,0,1,0,0,0,0,0,0],"id":6,"left_children":[1,3,5,7,9,-1,11,-1,-1,-1,-1,-1,-1],"loss_changes":[1.3346085E2,6.369362E0,1.4069023E1,1.6197433E0,2.1478944E0,0E0,2.281456E0,0E0,0E0,0E0,0E0,0E0,0E0],"parents":[2147483647,0,0,1,1,2,2,3,3,4,4,6,6],"right_children":[2,4,6,8,10,-1,12,-1,-1,-1,-1,-1,-1],"split_conditions":[7.6666754E-3,1.3876107E-2,1.0641129E-2,2.2194924E-2,5.3038616E-2,-2.647613E-1,4.0284038E-2,-3.1869683E-1,3.1944335E-2,-1.6620597E-1,2.4092434E-1,3.2017165E-1,-7.15901E-2],"split_indices":[86020,138890,8981,204236,81512,0,82654,0,0,0,0,0,0],"split_type":[0,0,0,0,0,0,0,0,0,0,0,0,0],"sum_hessian":[1.4213472E2,7.011509E1,7.201964E1,6.702669E1,3.0884E0,3.2726922E0,6.874695E1,6.599644E1,1.0302458E0,1.0048008E0,2.083599E0,6.77202E1,1.0267507E0],"tree_param":{"num_deleted":"0","num_feature":"211024","num_nodes":"13","size_leaf_vector":"1"}},{"base_weights":[-4.9122935E-3,-9.393407E-1,9.1128784E-1,-1.0188662E0,2.049705E-1,-2.3835614E-1,1.0175077E0,-3.1202823E-1,6.881623E-4,-1.5923844E-1,2.4067777E-1,-2.101459E-2,3.121221E-1],"categories":[],"categories_nodes":[],"categories_segments":[],"categories_sizes":[],"default_left":[1,1,0,1,0,0,0,0,0,0,0,0,0],"id":7,"left_children":[1,3,5,7,9,-1,11,-1,-1,-1,-1,-1,-1],"loss_changes":[9.4871315E1,5.2011185E0,1.0947128E1,1.1179237E0,2.3582876E0,0E0,1.395649E0,0E0,0E0,0E0,0E0,0E0,0E0],"parents":[2147483647,0,0,1,1,2,2,3,3,4,4,6,6],"right_children":[2,4,6,8,10,-1,12,-1,-1,-1,-1,-1,-1],"split_conditions":[7.6666754E-3,1.1859489E-2,1.0418479E-1,1.2559701E-2,4.9945053E-2,-2.3835614E-1,2.039111E-2,-3.1202823E-1,6.881623E-4,-1.5923844E-1,2.4067777E-1,-2.101459E-2,3.121221E-1],"split_indices":[86020,120797,189784,159949,70260,0,155620,0,0,0,0,0,0],"split_type":[0,0,0,0,0,0,0,0,0,0,0,0,0],"sum_hessian":[1.08815125E2,5.3859154E1,5.495597E1,5.0461864E1,3.3972912E0,2.8416293E0,5.211434E1,4.9416065E1,1.0457966E0,1.5720726E0,1.8252187E0,1.0322196E0,5.1082123E1],"tree_param":{"num_deleted":"0","num_feature":"211024","num_nodes":"13","size_leaf_vector":"1"}},{"base_weights":[-6.391137E-3,-9.039273E-1,8.76418E-1,-9.847006E-1,3.2102406E-1,-2.273255E-1,9.92832E-1,-3.030207E-1,-1.3711889E-3,-6.458587E-2,1.973991E-1,-1.24066705E-2,3.063009E-1],"categories":[],"categories_nodes":[],"categories_segments":[],"categories_sizes":[],"default_left":[1,0,0,1,1,0,0,0,0,0,0,0,0],"id":8,"left_children":[1,3,5,7,9,-1,11,-1,-1,-1,-1,-1,-1],"loss_changes":[6.762279E1,4.502964E0,8.938129E0,9.885559E-1,7.5102067E-1,0E0,1.2250824E0,0E0,0E0,0E0,0E0,0E0,0E0],"parents":[2147483647,0,0,1,1,2,2,3,3,4,4,6,6],"right_children":[2,4,6,8,10,-1,12,-1,-1,-1,-1,-1,-1],"split_conditions":[7.6666754E-3,4.986788E-1,2.7163602E-2,9.183783E-3,9.853706E-3,-2.273255E-1,1.5958104E-2,-3.030207E-1,-1.3711889E-3,-6.458587E-2,1.973991E-1,-1.24066705E-2,3.063009E-1],"split_indices":[86020,65714,13709,62718,185858,0,42525,0,0,0,0,0,0],"split_type":[0,0,0,0,0,0,0,0,0,0,0,0,0],"sum_hessian":[8.334444E1,4.1315643E1,4.2028793E1,3.8943817E1,2.3718245E0,2.4285638E0,3.960023E1,3.7931507E1,1.0123097E0,1.0545573E0,1.3172671E0,1.0376867E0,3.8562542E1],"tree_param":{"num_deleted":"0","num_feature":"211024","num_nodes":"13","size_leaf_vector":"1"}},{"base_weights":[-6.9205477E-3,-8.5091823E-1,8.547757E-1,-9.8328274E-1,1.3931459E-1,-2.1037994E-1,9.6857005E-1,-2.9935732E-1,-8.505944E-2,-1.6306281E-1,2.0359999E-1,1.0096858E-3,3.003079E-1],"categories":[],"categories_nodes":[],"categories_segments":[],"categories_sizes":[],"default_left":[1,0,0,1,0,0,0,0,0,0,0,0,0],"id":9,"left_children":[1,3,5,7,9,-1,11,-1,-1,-1,-1,-1,-1],"loss_changes":[4.8058407E1,4.512026E0,6.469635E0,1.8630981E-2,2.140995E0,0E0,9.644108E-1,0E0,0E0,0E0,0E0,0E0,0E0],"parents":[2147483647,0,0,1,1,2,2,3,3,4,4,6,6],"right_children":[2,4,6,8,10,-1,12,-1,-1,-1,-1,-1,-1],"split_conditions":[8.15435E-3,3.4893304E-1,1.0641129E-2,6.827191E-3,1.3319737E-1,-2.1037994E-1,1.5794506E-2,-2.9935732E-1,-8.505944E-2,-1.6306281E-1,2.0359999E-1,1.0096858E-3,3.003079E-1],"split_indices":[86020,82654,8981,68052,70260,0,98777,0,0,0,0,0,0],"split_type":[0,0,0,0,0,0,0,0,0,0,0,0,0],"sum_hessian":[6.408048E1,3.2379013E1,3.1701468E1,2.8567423E1,3.81159E0,1.8085457E0,2.9892921E1,2.7567213E1,1.0002104E0,1.6785979E0,2.132992E0,1.0083934E0,2.8884527E1],"tree_param":{"num_deleted":"0","num_feature":"211024","num_nodes":"13","size_leaf_vector":"1"}},{"base_weights":[-1.0693602E-2,-8.850133E-1,7.8282267E-1,-2.899246E-1,1.2213766E-1,-2.0405118E-1,9.372608E-1,2.938565E-1,4.59399E-3],"categories":[],"categories_nodes":[],"categories_segments":[],"categories_sizes":[],"default_left":[0,1,0,0,0,0,1,0,0],"id":10,"left_children":[1,3,5,-1,-1,-1,7,-1,-1],"loss_changes":[3.565507E1,2.964676E0,6.7261925E0,0E0,0E0,0E0,9.5109177E-1,0E0,0E0],"parents":[2147483647,0,0,1,1,2,2,6,6],"right_children":[2,4,6,-1,-1,-1,8,-1,-1],"split_conditions":[1.6756856E-1,1.0653481E-2,1.5902887E-1,-2.899246E-1,1.2213766E-1,-2.0405118E-1,1.591604E-2,2.938565E-1,4.59399E-3],"split_indices":[177899,201696,187379,0,0,0,82654,0,0],"split_type":[0,0,0,0,0,0,0,0,0],"sum_hessian":[4.939337E1,2.344532E1,2.5948053E1,2.229299E1,1.1523302E0,2.1525707E0,2.3795483E1,2.2692823E1,1.1026578E0],"tree_param":{"num_deleted":"0","num_feature":"211024","num_nodes":"9","size_leaf_vector":"1"}},{"base_weights":[-1.1480126E-2,-7.97412E-1,8.01646E-1,-9.2462736E-1,2.063015E-1,-1.7556548E-1,9.240439E-1,-2.876777E-1,-4.9400203E-2,-8.2126066E-2,1.6865149E-1,3.3564534E-2,2.89191E-1],"categories":[],"categories_nodes":[],"categories_segments":[],"categories_sizes":[],"default_left":[1,1,0,1,1,0,0,0,0,0,0,0,0],"id":11,"left_children":[1,3,5,7,9,-1,11,-1,-1,-1,-1,-1,-1],"loss_changes":[2.5751244E1,2.8061838E0,3.9038553E0,3.206911E-1,6.871933E-1,0E0,4.9505806E-1,0E0,0E0,0E0,0E0,0E0,0E0],"parents":[2147483647,0,0,1,1,2,2,3,3,4,4,6,6],"right_children":[2,4,6,8,10,-1,12,-1,-1,-1,-1,-1,-1],"split_conditions":[8.15435E-3,9.894572E-3,1.0641129E-2,1.1911005E-2,1.0702516E-2,-1.7556548E-1,1.4168072E-1,-2.876777E-1,-4.9400203E-2,-8.2126066E-2,1.6865149E-1,3.3564534E-2,2.89191E-1],"split_indices":[86020,120797,8981,69284,178545,0,185376,0,0,0,0,0,0],"split_type":[0,0,0,0,0,0,0,0,0,0,0,0,0],"sum_hessian":[3.829511E1,1.9483013E1,1.8812096E1,1.7361347E1,2.1216655E0,1.2189668E0,1.7593128E1,1.636113E1,1.0002167E0,1.00147E0,1.1201955E0,1.0025169E0,1.6590612E1],"tree_param":{"num_deleted":"0","num_feature":"211024","num_nodes":"13","size_leaf_vector":"1"}},{"base_weights":[-1.32991765E-2,-7.471393E-1,8.243189E-1,-9.035267E-1,1.7746508E-1,-3.876108E-2,2.7392069E-1,-5.0899886E-2,-2.8286332E-1],"categories":[],"categories_nodes":[],"categories_segments":[],"categories_sizes":[],"default_left":[0,1,0,1,0,0,0,0,0],"id":12,"left_children":[1,3,5,7,-1,-1,-1,-1,-1],"loss_changes":[1.961994E1,4.0943356E0,1.3799973E0,2.9113102E-1,0E0,0E0,0E0,0E0,0E0],"parents":[2147483647,0,0,1,1,2,2,3,3],"right_children":[2,4,6,8,-1,-1,-1,-1,-1],"split_conditions":[3.4893304E-1,1.2041682E-2,4.2169593E-2,1.4639156E-2,1.7746508E-1,-3.876108E-2,2.7392069E-1,-5.0899886E-2,-2.8286332E-1],"split_indices":[82654,104705,114097,65714,0,0,0,0,0],"split_type":[0,0,0,0,0,0,0,0,0],"sum_hessian":[2.9917107E1,1.600398E1,1.3913125E1,1.4621003E1,1.3829778E0,1.1458962E0,1.2767229E1,1.0144297E0,1.3606574E1],"tree_param":{"num_deleted":"0","num_feature":"211024","num_nodes":"9","size_leaf_vector":"1"}},{"base_weights":[-1.07276505E-2,-8.406958E-1,6.868998E-1,-2.7193668E-1,-2.2806302E-2,-1.4390333E-1,8.618655E-1,4.5232974E-2,2.7573615E-1],"categories":[],"categories_nodes":[],"categories_segments":[],"categories_sizes":[],"default_left":[0,1,0,0,0,0,0,0,0],"id":13,"left_children":[1,3,5,-1,-1,-1,7,-1,-1],"loss_changes":[1.4850903E1,5.19804E-1,3.2595253E0,0E0,0E0,0E0,3.6963844E-1,0E0,0E0],"parents":[2147483647,0,0,1,1,2,2,6,6],"right_children":[2,4,6,-1,-1,-1,8,-1,-1],"split_conditions":[1.2969604E-1,1.0107317E-2,1.0733476E-1,-2.7193668E-1,-2.2806302E-2,-1.4390333E-1,4.885092E-2,4.5232974E-2,2.7573615E-1],"split_indices":[202883,86020,168449,0,0,0,177899,0,0],"split_type":[0,0,0,0,0,0,0,0,0],"sum_hessian":[2.3651499E1,1.0707589E1,1.294391E1,9.688954E0,1.0186342E0,1.4610254E0,1.1482883E1,1.1264268E0,1.0356457E1],"tree_param":{"num_deleted":"0","num_feature":"211024","num_nodes":"9","size_leaf_vector":"1"}},{"base_weights":[-1.4482921E-2,-2.6699764E-1,6.038156E-1,-1.750275E-1,8.1056446E-1,2.639116E-1,2.1630786E-2],"categories":[],"categories_nodes":[],"categories_segments":[],"categories_sizes":[],"default_left":[0,0,0,0,1,0,0],"id":14,"left_children":[1,-1,3,-1,5,-1,-1],"loss_changes":[1.1307711E1,0E0,3.4814606E0,0E0,4.9092913E-1,0E0,0E0],"parents":[2147483647,0,0,2,2,4,4],"right_children":[2,-1,4,-1,6,-1,-1],"split_conditions":[6.14552E-1,-2.6699764E-1,1.0216791E-1,-1.750275E-1,1.4407038E-2,2.639116E-1,2.1630786E-2],"split_indices":[187379,0,13709,0,82654,0,0],"split_type":[0,0,0,0,0,0,0],"sum_hessian":[1.8896177E1,7.6393943E0,1.12567835E1,1.3993293E0,9.857454E0,8.838641E0,1.0188133E0],"tree_param":{"num_deleted":"0","num_feature":"211024","num_nodes":"7","size_leaf_vector":"1"}},{"base_weights":[-2.227473E-2,-7.498007E-1,6.472192E-1,-5.3361137E-3,-2.5596642E-1,-6.378695E-2,2.4674967E-1],"categories":[],"categories_nodes":[],"categories_segments":[],"categories_sizes":[],"default_left":[0,1,0,0,0,0,0],"id":15,"left_children":[1,3,5,-1,-1,-1,-1],"loss_changes":[8.289141E0,6.0117626E-1,1.513279E0,0E0,0E0,0E0,0E0],"parents":[2147483647,0,0,1,1,2,2],"right_children":[2,4,6,-1,-1,-1,-1],"split_conditions":[1.6756856E-1,3.0049388E-3,3.845991E-2,-5.3361137E-3,-2.5596642E-1,-6.378695E-2,2.4674967E-1],"split_indices":[177899,82654,202883,0,0,0,0],"split_type":[0,0,0,0,0,0,0],"sum_hessian":[1.5021905E1,7.1414638E0,7.8804407E0,1.0291451E0,6.112319E0,1.2983373E0,6.5821033E0],"tree_param":{"num_deleted":"0","num_feature":"211024","num_nodes":"7","size_leaf_vector":"1"}},{"base_weights":[-2.5406476E-2,-6.672972E-1,6.9385976E-1,-2.3919858E-1,2.3306808E-2,2.4862494E-1,8.091447E-3],"categories":[],"categories_nodes":[],"categories_segments":[],"categories_sizes":[],"default_left":[1,1,1,0,0,0,0],"id":16,"left_children":[1,3,5,-1,-1,-1,-1],"loss_changes":[6.6322136E0,7.953255E-1,5.8859277E-1,0E0,0E0,0E0,0E0],"parents":[2147483647,0,0,1,1,2,2],"right_children":[2,4,6,-1,-1,-1,-1],"split_conditions":[9.023883E-3,7.1250238E-3,2.316613E-2,-2.3919858E-1,2.3306808E-2,2.4862494E-1,8.091447E-3],"split_indices":[86020,120797,65714,0,0,0,0],"split_type":[0,0,0,0,0,0,0],"sum_hessian":[1.236221E1,6.570653E0,5.791558E0,5.5344076E0,1.0362455E0,4.6153164E0,1.1762414E0],"tree_param":{"num_deleted":"0","num_feature":"211024","num_nodes":"7","size_leaf_vector":"1"}},{"base_weights":[-1.7951934E-2,-2.3917797E-1,5.14268E-1,-1.2285788E-1,7.258199E-1,4.6030607E-2,2.4252987E-1],"categories":[],"categories_nodes":[],"categories_segments":[],"categories_sizes":[],"default_left":[0,0,0,0,1,0,0],"id":17,"left_children":[1,-1,3,-1,5,-1,-1],"loss_changes":[5.084465E0,0E0,1.7247871E0,0E0,1.7406201E-1,0E0,0E0],"parents":[2147483647,0,0,2,2,4,4],"right_children":[2,-1,4,-1,6,-1,-1],"split_conditions":[6.14552E-1,-2.3917797E-1,1.0733476E-1,-1.2285788E-1,7.6666754E-3,4.6030607E-2,2.4252987E-1],"split_indices":[187379,0,168449,0,86020,0,0],"split_type":[0,0,0,0,0,0,0],"sum_hessian":[1.0270189E1,3.9655728E0,6.3046165E0,1.0003818E0,5.304235E0,1.0293885E0,4.2748466E0],"tree_param":{"num_deleted":"0","num_feature":"211024","num_nodes":"7","size_leaf_vector":"1"}},{"base_weights":[-2.216591E-2,-6.583883E-1,5.6282717E-1,-4.566448E-2,-2.2498435E-1,-2.5332302E-3,2.1883997E-1],"categories":[],"categories_nodes":[],"categories_segments":[],"categories_sizes":[],"default_left":[0,1,1,0,0,0,0],"id":18,"left_children":[1,3,5,-1,-1,-1,-1],"loss_changes":[3.8853676E0,1.1686015E-1,5.2584136E-1,0E0,0E0,0E0,0E0],"parents":[2147483647,0,0,1,1,2,2],"right_children":[2,4,6,-1,-1,-1,-1],"split_conditions":[2.2288337E-1,1.5519733E-2,7.6666754E-3,-4.566448E-2,-2.2498435E-1,-2.5332302E-3,2.1883997E-1],"split_indices":[178734,82654,86020,0,0,0,0],"split_type":[0,0,0,0,0,0,0],"sum_hessian":[8.443697E0,3.9846442E0,4.459053E0,1.0181912E0,2.9664528E0,1.221353E0,3.2377002E0],"tree_param":{"num_deleted":"0","num_feature":"211024","num_nodes":"7","size_leaf_vector":"1"}},{"base_weights":[-2.4507333E-2,-5.6508076E-1,5.7773614E-1,-2.1404059E-1,1.1189899E-4,2.159104E-2,2.1210028E-1],"categories":[],"categories_nodes":[],"categories_segments":[],"categories_sizes":[],"default_left":[0,1,1,0,0,0,0],"id":19,"left_children":[1,3,5,-1,-1,-1,-1],"loss_changes":[3.0101833E0,4.071864E-1,2.3637176E-1,0E0,0E0,0E0,0E0],"parents":[2147483647,0,0,1,1,2,2],"right_children":[2,4,6,-1,-1,-1,-1],"split_conditions":[3.4893304E-1,6.2816218E-3,8.555404E-3,-2.1404059E-1,1.1189899E-4,2.159104E-2,2.1210028E-1],"split_indices":[82654,185858,86020,0,0,0,0],"split_type":[0,0,0,0,0,0,0],"sum_hessian":[7.243463E0,3.8496902E0,3.3937728E0,2.8420968E0,1.0075933E0,1.0077152E0,2.3860576E0],"tree_param":{"num_deleted":"0","num_feature":"211024","num_nodes":"7","size_leaf_vector":"1"}},{"base_weights":[-1.7783022E-2,-1.799878E-1,5.0583225E-1,5.190299E-3,1.9944705E-1],"categories":[],"categories_nodes":[],"categories_segments":[],"categories_sizes":[],"default_left":[0,0,1,0,0],"id":20,"left_children":[1,-1,3,-1,-1],"loss_changes":[2.5196745E0,0E0,3.279351E-1,0E0,0E0],"parents":[2147483647,0,0,2,2],"right_children":[2,-1,4,-1,-1],"split_conditions":[1.6756856E-1,-1.799878E-1,7.6666754E-3,5.190299E-3,1.9944705E-1],"split_indices":[177899,0,86020,0,0],"split_type":[0,0,0,0,0],"sum_hessian":[6.270115E0,2.8999896E0,3.3701255E0,1.0997496E0,2.270376E0],"tree_param":{"num_deleted":"0","num_feature":"211024","num_nodes":"5","size_leaf_vector":"1"}},{"base_weights":[-9.318467E-3,-1.9288649E-1,4.39328E-1,-2.6154613E-2,1.8735854E-1],"categories":[],"categories_nodes":[],"categories_segments":[],"categories_sizes":[],"default_left":[0,0,0,0,0],"id":21,"left_children":[1,-1,3,-1,-1],"loss_changes":[2.1332812E0,0E0,4.8405313E-1,0E0,0E0],"parents":[2147483647,0,0,2,2],"right_children":[2,-1,4,-1,-1],"split_conditions":[1.0733476E-1,-1.9288649E-1,1.3319737E-1,-2.6154613E-2,1.8735854E-1],"split_indices":[168449,0,70260,0,0],"split_type":[0,0,0,0,0],"sum_hessian":[5.5105567E0,2.1047947E0,3.405762E0,1.0239656E0,2.3817964E0],"tree_param":{"num_deleted":"0","num_feature":"211024","num_nodes":"5","size_leaf_vector":"1"}},{"base_weights":[-1.29578225E-2,-1.7079528E-1,4.4901288E-1,1.1086611E-3,1.834557E-1],"categories":[],"categories_nodes":[],"categories_segments":[],"categories_sizes":[],"default_left":[0,0,1,0,0],"id":22,"left_children":[1,-1,3,-1,-1],"loss_changes":[1.7530546E0,0E0,2.6854432E-1,0E0,0E0],"parents":[2147483647,0,0,2,2],"right_children":[2,-1,4,-1,-1],"split_conditions":[1.2969604E-1,-1.7079528E-1,8.60646E-3,1.1086611E-3,1.834557E-1],"split_indices":[202883,0,185858,0,0],"split_type":[0,0,0,0,0],"sum_hessian":[4.8260546E0,2.0839493E0,2.7421055E0,1.0065597E0,1.7355458E0],"tree_param":{"num_deleted":"0","num_feature":"211024","num_nodes":"5","size_leaf_vector":"1"}},{"base_weights":[-7.083105E-3,-4.0097982E-1,1.7917441E-1,-1.809015E-1,1.8193953E-2],"categories":[],"categories_nodes":[],"categories_segments":[],"categories_sizes":[],"default_left":[1,0,0,0,0],"id":23,"left_children":[1,3,-1,-1,-1],"loss_changes":[1.498908E0,3.9108276E-1,0E0,0E0,0E0],"parents":[2147483647,0,0,1,1],"right_children":[2,4,-1,-1,-1],"split_conditions":[7.869248E-3,2.2288337E-1,1.7917441E-1,-1.809015E-1,1.8193953E-2],"split_indices":[104705,178734,0,0,0],"split_type":[0,0,0,0,0],"sum_hessian":[4.290717E0,2.8013296E0,1.4893874E0,1.7355326E0,1.0657971E0],"tree_param":{"num_deleted":"0","num_feature":"211024","num_nodes":"5","size_leaf_vector":"1"}},{"base_weights":[-2.7411394E-3,-1.6726321E-1,3.6391088E-1,-1.2689337E-2,1.6346681E-1],"categories":[],"categories_nodes":[],"categories_segments":[],"categories_sizes":[],"default_left":[0,0,1,0,0],"id":24,"left_children":[1,-1,3,-1,-1],"loss_changes":[1.1762335E0,0E0,2.7932203E-1,0E0,0E0],"parents":[2147483647,0,0,2,2],"right_children":[2,-1,4,-1,-1],"split_conditions":[6.14552E-1,-1.6726321E-1,8.825403E-3,-1.2689337E-2,1.6346681E-1],"split_indices":[187379,0,178545,0,0],"split_type":[0,0,0,0,0],"sum_hessian":[3.7848754E0,1.2988594E0,2.486016E0,1.0023993E0,1.4836167E0],"tree_param":{"num_deleted":"0","num_feature":"211024","num_nodes":"5","size_leaf_vector":"1"}},{"base_weights":[-5.8834483E-3,-1.5986428E-1,3.4255132E-1,-9.187023E-3,1.5745595E-1],"categories":[],"categories_nodes":[],"categories_segments":[],"categories_sizes":[],"default_left":[0,0,1,0,0],"id":25,"left_children":[1,-1,3,-1,-1],"loss_changes":[9.886857E-1,0E0,2.3727664E-1,0E0,0E0],"parents":[2147483647,0,0,2,2],"right_children":[2,-1,4,-1,-1],"split_conditions":[1.0216791E-1,-1.5986428E-1,9.777565E-3,-9.187023E-3,1.5745595E-1],"split_indices":[13709,0,86020,0,0],"split_type":[0,0,0,0,0],"sum_hessian":[3.3901978E0,1.1386565E0,2.2515411E0,1.0119934E0,1.2395477E0],"tree_param":{"num_deleted":"0","num_feature":"211024","num_nodes":"5","size_leaf_vector":"1"}},{"base_weights":[-7.3007243E-3,-1.4927733E-1,9.955079E-2],"categories":[],"categories_nodes":[],"categories_segments":[],"categories_sizes":[],"default_left":[0,0,0],"id":26,"left_children":[1,-1,-1],"loss_changes":[8.3917886E-1,0E0,0E0],"parents":[2147483647,0,0],"right_children":[2,-1,-1],"split_conditions":[2.0043811E-1,-1.4927733E-1,9.955079E-2],"split_indices":[116746,0,0],"split_type":[0,0,0],"sum_hessian":[3.0538776E0,1.0576307E0,1.9962468E0],"tree_param":{"num_deleted":"0","num_feature":"211024","num_nodes":"3","size_leaf_vector":"1"}},{"base_weights":[-2.0044774E-2,9.411354E-2,-1.404798E-1],"categories":[],"categories_nodes":[],"categories_segments":[],"categories_sizes":[],"default_left":[1,0,0],"id":27,"left_children":[1,-1,-1],"loss_changes":[7.1953684E-1,0E0,0E0],"parents":[2147483647,0,0],"right_children":[2,-1,-1],"split_conditions":[1.7383516E-2,9.411354E-2,-1.404798E-1],"split_indices":[82654,0,0],"split_type":[0,0,0],"sum_hessian":[2.8278658E0,1.792914E0,1.0349518E0],"tree_param":{"num_deleted":"0","num_feature":"211024","num_nodes":"3","size_leaf_vector":"1"}},{"base_weights":[-2.902353E-2,-1.10033125E-1,1.1117123E-1],"categories":[],"categories_nodes":[],"categories_segments":[],"categories_sizes":[],"default_left":[1,0,0],"id":28,"left_children":[1,-1,-1],"loss_changes":[6.2608725E-1,0E0,0E0],"parents":[2147483647,0,0],"right_children":[2,-1,-1],"split_conditions":[7.755991E-3,-1.10033125E-1,1.1117123E-1],"split_indices":[185858,0,0],"split_type":[0,0,0],"sum_hessian":[2.6318502E0,1.4707978E0,1.1610525E0],"tree_param":{"num_deleted":"0","num_feature":"211024","num_nodes":"3","size_leaf_vector":"1"}},{"base_weights":[-2.1145739E-2,-1.10828824E-1,1.0360927E-1],"categories":[],"categories_nodes":[],"categories_segments":[],"categories_sizes":[],"default_left":[0,0,0],"id":29,"left_children":[1,-1,-1],"loss_changes":[5.695309E-1,0E0,0E0],"parents":[2147483647,0,0],"right_children":[2,-1,-1],"split_conditions":[1.3319737E-1,-1.10828824E-1,1.0360927E-1],"split_indices":[70260,0,0],"split_type":[0,0,0],"sum_hessian":[2.4621634E0,1.2583883E0,1.2037752E0],"tree_param":{"num_deleted":"0","num_feature":"211024","num_nodes":"3","size_leaf_vector":"1"}},{"base_weights":[-1.7972834E-2,-1.1214977E-1,9.190001E-2],"categories":[],"categories_nodes":[],"categories_segments":[],"categories_sizes":[],"default_left":[0,0,0],"id":30,"left_children":[1,-1,-1],"loss_changes":[4.9638116E-1,0E0,0E0],"parents":[2147483647,0,0],"right_children":[2,-1,-1],"split_conditions":[1.6756856E-1,-1.1214977E-1,9.190001E-2],"split_indices":[177899,0,0],"split_type":[0,0,0],"sum_hessian":[2.3088295E0,1.0280454E0,1.2807842E0],"tree_param":{"num_deleted":"0","num_feature":"211024","num_nodes":"3","size_leaf_vector":"1"}},{"base_weights":[-2.0058976E-2,-1.0017779E-1,9.30562E-2],"categories":[],"categories_nodes":[],"categories_segments":[],"categories_sizes":[],"default_left":[0,0,0],"id":31,"left_children":[1,-1,-1],"loss_changes":[4.324463E-1,0E0,0E0],"parents":[2147483647,0,0],"right_children":[2,-1,-1],"split_conditions":[3.4893304E-1,-1.0017779E-1,9.30562E-2],"split_indices":[82654,0,0],"split_type":[0,0,0],"sum_hessian":[2.1727533E0,1.1082897E0,1.0644635E0],"tree_param":{"num_deleted":"0","num_feature":"211024","num_nodes":"3","size_leaf_vector":"1"}},{"base_weights":[-1.716864E-2,-9.114248E-2,8.53405E-2],"categories":[],"categories_nodes":[],"categories_segments":[],"categories_sizes":[],"default_left":[0,0,0],"id":32,"left_children":[1,-1,-1],"loss_changes":[3.503888E-1,0E0,0E0],"parents":[2147483647,0,0],"right_children":[2,-1,-1],"split_conditions":[1.3319737E-1,-9.114248E-2,8.53405E-2],"split_indices":[70260,0,0],"split_type":[0,0,0],"sum_hessian":[2.0529907E0,1.0489736E0,1.0040172E0],"tree_param":{"num_deleted":"0","num_feature":"211024","num_nodes":"3","size_leaf_vector":"1"}},{"base_weights":[-1.45325605E-2],"categories":[],"categories_nodes":[],"categories_segments":[],"categories_sizes":[],"default_left":[0],"id":33,"left_children":[-1],"loss_changes":[0E0],"parents":[2147483647],"right_children":[-1],"split_conditions":[-4.3597682E-3],"split_indices":[0],"split_type":[0],"sum_hessian":[1.9579196E0],"tree_param":{"num_deleted":"0","num_feature":"211024","num_nodes":"1","size_leaf_vector":"1"}},{"base_weights":[-1.164622E-2],"categories":[],"categories_nodes":[],"categories_segments":[],"categories_sizes":[],"default_left":[0],"id":34,"left_children":[-1],"loss_changes":[0E0],"parents":[2147483647],"right_children":[-1],"split_conditions":[-3.4938662E-3],"split_indices":[0],"split_type":[0],"sum_hessian":[1.9577343E0],"tree_param":{"num_deleted":"0","num_feature":"211024","num_nodes":"1","size_leaf_vector":"1"}},{"base_weights":[-9.338589E-3],"categories":[],"categories_nodes":[],"categories_segments":[],"categories_sizes":[],"default_left":[0],"id":35,"left_children":[-1],"loss_changes":[0E0],"parents":[2147483647],"right_children":[-1],"split_conditions":[-2.8015769E-3],"split_indices":[0],"split_type":[0],"sum_hessian":[1.9575955E0],"tree_param":{"num_deleted":"0","num_feature":"211024","num_nodes":"1","size_leaf_vector":"1"}},{"base_weights":[-7.4810623E-3],"categories":[],"categories_nodes":[],"categories_segments":[],"categories_sizes":[],"default_left":[0],"id":36,"left_children":[-1],"loss_changes":[0E0],"parents":[2147483647],"right_children":[-1],"split_conditions":[-2.2443188E-3],"split_indices":[0],"split_type":[0],"sum_hessian":[1.9575214E0],"tree_param":{"num_deleted":"0","num_feature":"211024","num_nodes":"1","size_leaf_vector":"1"}},{"base_weights":[-5.9970967E-3],"categories":[],"categories_nodes":[],"categories_segments":[],"categories_sizes":[],"default_left":[0],"id":37,"left_children":[-1],"loss_changes":[0E0],"parents":[2147483647],"right_children":[-1],"split_conditions":[-1.7991291E-3],"split_indices":[0],"split_type":[0],"sum_hessian":[1.9574603E0],"tree_param":{"num_deleted":"0","num_feature":"211024","num_nodes":"1","size_leaf_vector":"1"}},{"base_weights":[-4.801984E-3],"categories":[],"categories_nodes":[],"categories_segments":[],"categories_sizes":[],"default_left":[0],"id":38,"left_children":[-1],"loss_changes":[0E0],"parents":[2147483647],"right_children":[-1],"split_conditions":[-1.4405953E-3],"split_indices":[0],"split_type":[0],"sum_hessian":[1.9574344E0],"tree_param":{"num_deleted":"0","num_feature":"211024","num_nodes":"1","size_leaf_vector":"1"}},{"base_weights":[-3.849754E-3],"categories":[],"categories_nodes":[],"categories_segments":[],"categories_sizes":[],"default_left":[0],"id":39,"left_children":[-1],"loss_changes":[0E0],"parents":[2147483647],"right_children":[-1],"split_conditions":[-1.1549263E-3],"split_indices":[0],"split_type":[0],"sum_hessian":[1.9574043E0],"tree_param":{"num_deleted":"0","num_feature":"211024","num_nodes":"1","size_leaf_vector":"1"}},{"base_weights":[-3.0877632E-3],"categories":[],"categories_nodes":[],"categories_segments":[],"categories_sizes":[],"default_left":[0],"id":40,"left_children":[-1],"loss_changes":[0E0],"parents":[2147483647],"right_children":[-1],"split_conditions":[-9.26329E-4],"split_indices":[0],"split_type":[0],"sum_hessian":[1.9573786E0],"tree_param":{"num_deleted":"0","num_feature":"211024","num_nodes":"1","size_leaf_vector":"1"}},{"base_weights":[-2.478322E-3],"categories":[],"categories_nodes":[],"categories_segments":[],"categories_sizes":[],"default_left":[0],"id":41,"left_children":[-1],"loss_changes":[0E0],"parents":[2147483647],"right_children":[-1],"split_conditions":[-7.4349664E-4],"split_indices":[0],"split_type":[0],"sum_hessian":[1.9573545E0],"tree_param":{"num_deleted":"0","num_feature":"211024","num_nodes":"1","size_leaf_vector":"1"}},{"base_weights":[-1.9824055E-3],"categories":[],"categories_nodes":[],"categories_segments":[],"categories_sizes":[],"default_left":[0],"id":42,"left_children":[-1],"loss_changes":[0E0],"parents":[2147483647],"right_children":[-1],"split_conditions":[-5.947217E-4],"split_indices":[0],"split_type":[0],"sum_hessian":[1.9573567E0],"tree_param":{"num_deleted":"0","num_feature":"211024","num_nodes":"1","size_leaf_vector":"1"}},{"base_weights":[-1.590334E-3],"categories":[],"categories_nodes":[],"categories_segments":[],"categories_sizes":[],"default_left":[0],"id":43,"left_children":[-1],"loss_changes":[0E0],"parents":[2147483647],"right_children":[-1],"split_conditions":[-4.7710023E-4],"split_indices":[0],"split_type":[0],"sum_hessian":[1.9573455E0],"tree_param":{"num_deleted":"0","num_feature":"211024","num_nodes":"1","size_leaf_vector":"1"}},{"base_weights":[-1.27575E-3],"categories":[],"categories_nodes":[],"categories_segments":[],"categories_sizes":[],"default_left":[0],"id":44,"left_children":[-1],"loss_changes":[0E0],"parents":[2147483647],"right_children":[-1],"split_conditions":[-3.82725E-4],"split_indices":[0],"split_type":[0],"sum_hessian":[1.9573368E0],"tree_param":{"num_deleted":"0","num_feature":"211024","num_nodes":"1","size_leaf_vector":"1"}},{"base_weights":[-1.023822E-3],"categories":[],"categories_nodes":[],"categories_segments":[],"categories_sizes":[],"default_left":[0],"id":45,"left_children":[-1],"loss_changes":[0E0],"parents":[2147483647],"right_children":[-1],"split_conditions":[-3.071466E-4],"split_indices":[0],"split_type":[0],"sum_hessian":[1.9573288E0],"tree_param":{"num_deleted":"0","num_feature":"211024","num_nodes":"1","size_leaf_vector":"1"}},{"base_weights":[-8.200687E-4],"categories":[],"categories_nodes":[],"categories_segments":[],"categories_sizes":[],"default_left":[0],"id":46,"left_children":[-1],"loss_changes":[0E0],"parents":[2147483647],"right_children":[-1],"split_conditions":[-2.4602062E-4],"split_indices":[0],"split_type":[0],"sum_hessian":[1.9573276E0],"tree_param":{"num_deleted":"0","num_feature":"211024","num_nodes":"1","size_leaf_vector":"1"}},{"base_weights":[-6.5397535E-4],"categories":[],"categories_nodes":[],"categories_segments":[],"categories_sizes":[],"default_left":[0],"id":47,"left_children":[-1],"loss_changes":[0E0],"parents":[2147483647],"right_children":[-1],"split_conditions":[-1.9619262E-4],"split_indices":[0],"split_type":[0],"sum_hessian":[1.9573352E0],"tree_param":{"num_deleted":"0","num_feature":"211024","num_nodes":"1","size_leaf_vector":"1"}},{"base_weights":[-5.2481925E-4],"categories":[],"categories_nodes":[],"categories_segments":[],"categories_sizes":[],"default_left":[0],"id":48,"left_children":[-1],"loss_changes":[0E0],"parents":[2147483647],"right_children":[-1],"split_conditions":[-1.5744579E-4],"split_indices":[0],"split_type":[0],"sum_hessian":[1.9573319E0],"tree_param":{"num_deleted":"0","num_feature":"211024","num_nodes":"1","size_leaf_vector":"1"}},{"base_weights":[-4.192641E-4],"categories":[],"categories_nodes":[],"categories_segments":[],"categories_sizes":[],"default_left":[0],"id":49,"left_children":[-1],"loss_changes":[0E0],"parents":[2147483647],"right_children":[-1],"split_conditions":[-1.2577923E-4],"split_indices":[0],"split_type":[0],"sum_hessian":[1.9573349E0],"tree_param":{"num_deleted":"0","num_feature":"211024","num_nodes":"1","size_leaf_vector":"1"}},{"base_weights":[-3.3543256E-4],"categories":[],"categories_nodes":[],"categories_segments":[],"categories_sizes":[],"default_left":[0],"id":50,"left_children":[-1],"loss_changes":[0E0],"parents":[2147483647],"right_children":[-1],"split_conditions":[-1.00629775E-4],"split_indices":[0],"split_type":[0],"sum_hessian":[1.9573355E0],"tree_param":{"num_deleted":"0","num_feature":"211024","num_nodes":"1","size_leaf_vector":"1"}},{"base_weights":[-2.7281122E-4],"categories":[],"categories_nodes":[],"categories_segments":[],"categories_sizes":[],"default_left":[0],"id":51,"left_children":[-1],"loss_changes":[0E0],"parents":[2147483647],"right_children":[-1],"split_conditions":[-8.184337E-5],"split_indices":[0],"split_type":[0],"sum_hessian":[1.957323E0],"tree_param":{"num_deleted":"0","num_feature":"211024","num_nodes":"1","size_leaf_vector":"1"}},{"base_weights":[-2.2183594E-4],"categories":[],"categories_nodes":[],"categories_segments":[],"categories_sizes":[],"default_left":[0],"id":52,"left_children":[-1],"loss_changes":[0E0],"parents":[2147483647],"right_children":[-1],"split_conditions":[-6.655078E-5],"split_indices":[0],"split_type":[0],"sum_hessian":[1.9573127E0],"tree_param":{"num_deleted":"0","num_feature":"211024","num_nodes":"1","size_leaf_vector":"1"}},{"base_weights":[-1.7033375E-4],"categories":[],"categories_nodes":[],"categories_segments":[],"categories_sizes":[],"default_left":[0],"id":53,"left_children":[-1],"loss_changes":[0E0],"parents":[2147483647],"right_children":[-1],"split_conditions":[-5.1100127E-5],"split_indices":[0],"split_type":[0],"sum_hessian":[1.9573339E0],"tree_param":{"num_deleted":"0","num_feature":"211024","num_nodes":"1","size_leaf_vector":"1"}},{"base_weights":[-1.3495547E-4],"categories":[],"categories_nodes":[],"categories_segments":[],"categories_sizes":[],"default_left":[0],"id":54,"left_children":[-1],"loss_changes":[0E0],"parents":[2147483647],"right_children":[-1],"split_conditions":[-4.048664E-5],"split_indices":[0],"split_type":[0],"sum_hessian":[1.9573382E0],"tree_param":{"num_deleted":"0","num_feature":"211024","num_nodes":"1","size_leaf_vector":"1"}},{"base_weights":[-1.1085363E-4],"categories":[],"categories_nodes":[],"categories_segments":[],"categories_sizes":[],"default_left":[0],"id":55,"left_children":[-1],"loss_changes":[0E0],"parents":[2147483647],"right_children":[-1],"split_conditions":[-3.3256092E-5],"split_indices":[0],"split_type":[0],"sum_hessian":[1.95733E0],"tree_param":{"num_deleted":"0","num_feature":"211024","num_nodes":"1","size_leaf_vector":"1"}},{"base_weights":[-9.012764E-5],"categories":[],"categories_nodes":[],"categories_segments":[],"categories_sizes":[],"default_left":[0],"id":56,"left_children":[-1],"loss_changes":[0E0],"parents":[2147483647],"right_children":[-1],"split_conditions":[-2.7038293E-5],"split_indices":[0],"split_type":[0],"sum_hessian":[1.9573258E0],"tree_param":{"num_deleted":"0","num_feature":"211024","num_nodes":"1","size_leaf_vector":"1"}},{"base_weights":[-7.1404604E-5],"categories":[],"categories_nodes":[],"categories_segments":[],"categories_sizes":[],"default_left":[0],"id":57,"left_children":[-1],"loss_changes":[0E0],"parents":[2147483647],"right_children":[-1],"split_conditions":[-2.1421381E-5],"split_indices":[0],"split_type":[0],"sum_hessian":[1.9573278E0],"tree_param":{"num_deleted":"0","num_feature":"211024","num_nodes":"1","size_leaf_vector":"1"}},{"base_weights":[-5.9003094E-5],"categories":[],"categories_nodes":[],"categories_segments":[],"categories_sizes":[],"default_left":[0],"id":58,"left_children":[-1],"loss_changes":[0E0],"parents":[2147483647],"right_children":[-1],"split_conditions":[-1.770093E-5],"split_indices":[0],"split_type":[0],"sum_hessian":[1.9573225E0],"tree_param":{"num_deleted":"0","num_feature":"211024","num_nodes":"1","size_leaf_vector":"1"}},{"base_weights":[-4.726471E-5],"categories":[],"categories_nodes":[],"categories_segments":[],"categories_sizes":[],"default_left":[0],"id":59,"left_children":[-1],"loss_changes":[0E0],"parents":[2147483647],"right_children":[-1],"split_conditions":[-1.4179414E-5],"split_indices":[0],"split_type":[0],"sum_hessian":[1.9573225E0],"tree_param":{"num_deleted":"0","num_feature":"211024","num_nodes":"1","size_leaf_vector":"1"}},{"base_weights":[-3.7776234E-5],"categories":[],"categories_nodes":[],"categories_segments":[],"categories_sizes":[],"default_left":[0],"id":60,"left_children":[-1],"loss_changes":[0E0],"parents":[2147483647],"right_children":[-1],"split_conditions":[-1.1332871E-5],"split_indices":[0],"split_type":[0],"sum_hessian":[1.9573225E0],"tree_param":{"num_deleted":"0","num_feature":"211024","num_nodes":"1","size_leaf_vector":"1"}},{"base_weights":[-3.126158E-5],"categories":[],"categories_nodes":[],"categories_segments":[],"categories_sizes":[],"default_left":[0],"id":61,"left_children":[-1],"loss_changes":[0E0],"parents":[2147483647],"right_children":[-1],"split_conditions":[-9.378475E-6],"split_indices":[0],"split_type":[0],"sum_hessian":[1.9573193E0],"tree_param":{"num_deleted":"0","num_feature":"211024","num_nodes":"1","size_leaf_vector":"1"}},{"base_weights":[-2.5088075E-5],"categories":[],"categories_nodes":[],"categories_segments":[],"categories_sizes":[],"default_left":[0],"id":62,"left_children":[-1],"loss_changes":[0E0],"parents":[2147483647],"right_children":[-1],"split_conditions":[-7.526423E-6],"split_indices":[0],"split_type":[0],"sum_hessian":[1.9573189E0],"tree_param":{"num_deleted":"0","num_feature":"211024","num_nodes":"1","size_leaf_vector":"1"}},{"base_weights":[-2.0183003E-5],"categories":[],"categories_nodes":[],"categories_segments":[],"categories_sizes":[],"default_left":[0],"id":63,"left_children":[-1],"loss_changes":[0E0],"parents":[2147483647],"right_children":[-1],"split_conditions":[-6.054901E-6],"split_indices":[0],"split_type":[0],"sum_hessian":[1.9573184E0],"tree_param":{"num_deleted":"0","num_feature":"211024","num_nodes":"1","size_leaf_vector":"1"}},{"base_weights":[-1.6954808E-5],"categories":[],"categories_nodes":[],"categories_segments":[],"categories_sizes":[],"default_left":[0],"id":64,"left_children":[-1],"loss_changes":[0E0],"parents":[2147483647],"right_children":[-1],"split_conditions":[-5.0864423E-6],"split_indices":[0],"split_type":[0],"sum_hessian":[1.9573158E0],"tree_param":{"num_deleted":"0","num_feature":"211024","num_nodes":"1","size_leaf_vector":"1"}},{"base_weights":[-1.3908222E-5],"categories":[],"categories_nodes":[],"categories_segments":[],"categories_sizes":[],"default_left":[0],"id":65,"left_children":[-1],"loss_changes":[0E0],"parents":[2147483647],"right_children":[-1],"split_conditions":[-4.172467E-6],"split_indices":[0],"split_type":[0],"sum_hessian":[1.9573147E0],"tree_param":{"num_deleted":"0","num_feature":"211024","num_nodes":"1","size_leaf_vector":"1"}},{"base_weights":[-1.1405464E-5],"categories":[],"categories_nodes":[],"categories_segments":[],"categories_sizes":[],"default_left":[0],"id":66,"left_children":[-1],"loss_changes":[0E0],"parents":[2147483647],"right_children":[-1],"split_conditions":[-3.4216393E-6],"split_indices":[0],"split_type":[0],"sum_hessian":[1.9573137E0],"tree_param":{"num_deleted":"0","num_feature":"211024","num_nodes":"1","size_leaf_vector":"1"}},{"base_weights":[-9.605031E-6],"categories":[],"categories_nodes":[],"categories_segments":[],"categories_sizes":[],"default_left":[0],"id":67,"left_children":[-1],"loss_changes":[0E0],"parents":[2147483647],"right_children":[-1],"split_conditions":[-2.8815093E-6],"split_indices":[0],"split_type":[0],"sum_hessian":[1.9573125E0],"tree_param":{"num_deleted":"0","num_feature":"211024","num_nodes":"1","size_leaf_vector":"1"}},{"base_weights":[-7.810065E-6],"categories":[],"categories_nodes":[],"categories_segments":[],"categories_sizes":[],"default_left":[0],"id":68,"left_children":[-1],"loss_changes":[0E0],"parents":[2147483647],"right_children":[-1],"split_conditions":[-2.3430196E-6],"split_indices":[0],"split_type":[0],"sum_hessian":[1.9573121E0],"tree_param":{"num_deleted":"0","num_feature":"211024","num_nodes":"1","size_leaf_vector":"1"}},{"base_weights":[-6.2059603E-6],"categories":[],"categories_nodes":[],"categories_segments":[],"categories_sizes":[],"default_left":[0],"id":69,"left_children":[-1],"loss_changes":[0E0],"parents":[2147483647],"right_children":[-1],"split_conditions":[-1.8617882E-6],"split_indices":[0],"split_type":[0],"sum_hessian":[1.9573122E0],"tree_param":{"num_deleted":"0","num_feature":"211024","num_nodes":"1","size_leaf_vector":"1"}},{"base_weights":[-5.108084E-6],"categories":[],"categories_nodes":[],"categories_segments":[],"categories_sizes":[],"default_left":[0],"id":70,"left_children":[-1],"loss_changes":[0E0],"parents":[2147483647],"right_children":[-1],"split_conditions":[-1.5324254E-6],"split_indices":[0],"split_type":[0],"sum_hessian":[1.9573117E0],"tree_param":{"num_deleted":"0","num_feature":"211024","num_nodes":"1","size_leaf_vector":"1"}},{"base_weights":[-3.374446E-6],"categories":[],"categories_nodes":[],"categories_segments":[],"categories_sizes":[],"default_left":[0],"id":71,"left_children":[-1],"loss_changes":[0E0],"parents":[2147483647],"right_children":[-1],"split_conditions":[-1.0123338E-6],"split_indices":[0],"split_type":[0],"sum_hessian":[1.957314E0],"tree_param":{"num_deleted":"0","num_feature":"211024","num_nodes":"1","size_leaf_vector":"1"}},{"base_weights":[-2.9383782E-6],"categories":[],"categories_nodes":[],"categories_segments":[],"categories_sizes":[],"default_left":[0],"id":72,"left_children":[-1],"loss_changes":[0E0],"parents":[2147483647],"right_children":[-1],"split_conditions":[-8.815135E-7],"split_indices":[0],"split_type":[0],"sum_hessian":[1.9573134E0],"tree_param":{"num_deleted":"0","num_feature":"211024","num_nodes":"1","size_leaf_vector":"1"}},{"base_weights":[-2.3012028E-6],"categories":[],"categories_nodes":[],"categories_segments":[],"categories_sizes":[],"default_left":[0],"id":73,"left_children":[-1],"loss_changes":[0E0],"parents":[2147483647],"right_children":[-1],"split_conditions":[-6.903609E-7],"split_indices":[0],"split_type":[0],"sum_hessian":[1.9573134E0],"tree_param":{"num_deleted":"0","num_feature":"211024","num_nodes":"1","size_leaf_vector":"1"}},{"base_weights":[-2.0022142E-6],"categories":[],"categories_nodes":[],"categories_segments":[],"categories_sizes":[],"default_left":[0],"id":74,"left_children":[-1],"loss_changes":[0E0],"parents":[2147483647],"right_children":[-1],"split_conditions":[-6.006643E-7],"split_indices":[0],"split_type":[0],"sum_hessian":[1.9573133E0],"tree_param":{"num_deleted":"0","num_feature":"211024","num_nodes":"1","size_leaf_vector":"1"}},{"base_weights":[-1.7472456E-6],"categories":[],"categories_nodes":[],"categories_segments":[],"categories_sizes":[],"default_left":[0],"id":75,"left_children":[-1],"loss_changes":[0E0],"parents":[2147483647],"right_children":[-1],"split_conditions":[-5.241737E-7],"split_indices":[0],"split_type":[0],"sum_hessian":[1.957313E0],"tree_param":{"num_deleted":"0","num_feature":"211024","num_nodes":"1","size_leaf_vector":"1"}},{"base_weights":[-1.4572026E-6],"categories":[],"categories_nodes":[],"categories_segments":[],"categories_sizes":[],"default_left":[0],"id":76,"left_children":[-1],"loss_changes":[0E0],"parents":[2147483647],"right_children":[-1],"split_conditions":[-4.3716082E-7],"split_indices":[0],"split_type":[0],"sum_hessian":[1.9573128E0],"tree_param":{"num_deleted":"0","num_feature":"211024","num_nodes":"1","size_leaf_vector":"1"}},{"base_weights":[-1.2096544E-6],"categories":[],"categories_nodes":[],"categories_segments":[],"categories_sizes":[],"default_left":[0],"id":77,"left_children":[-1],"loss_changes":[0E0],"parents":[2147483647],"right_children":[-1],"split_conditions":[-3.6289634E-7],"split_indices":[0],"split_type":[0],"sum_hessian":[1.9573127E0],"tree_param":{"num_deleted":"0","num_feature":"211024","num_nodes":"1","size_leaf_vector":"1"}},{"base_weights":[-1.0215477E-6],"categories":[],"categories_nodes":[],"categories_segments":[],"categories_sizes":[],"default_left":[0],"id":78,"left_children":[-1],"loss_changes":[0E0],"parents":[2147483647],"right_children":[-1],"split_conditions":[-3.0646433E-7],"split_indices":[0],"split_type":[0],"sum_hessian":[1.9573123E0],"tree_param":{"num_deleted":"0","num_feature":"211024","num_nodes":"1","size_leaf_vector":"1"}},{"base_weights":[-8.018504E-7],"categories":[],"categories_nodes":[],"categories_segments":[],"categories_sizes":[],"default_left":[0],"id":79,"left_children":[-1],"loss_changes":[0E0],"parents":[2147483647],"right_children":[-1],"split_conditions":[-2.4055512E-7],"split_indices":[0],"split_type":[0],"sum_hessian":[1.9573122E0],"tree_param":{"num_deleted":"0","num_feature":"211024","num_nodes":"1","size_leaf_vector":"1"}},{"base_weights":[-6.201011E-7],"categories":[],"categories_nodes":[],"categories_segments":[],"categories_sizes":[],"default_left":[0],"id":80,"left_children":[-1],"loss_changes":[0E0],"parents":[2147483647],"right_children":[-1],"split_conditions":[-1.8603033E-7],"split_indices":[0],"split_type":[0],"sum_hessian":[1.9573119E0],"tree_param":{"num_deleted":"0","num_feature":"211024","num_nodes":"1","size_leaf_vector":"1"}},{"base_weights":[-5.734926E-7],"categories":[],"categories_nodes":[],"categories_segments":[],"categories_sizes":[],"default_left":[0],"id":81,"left_children":[-1],"loss_changes":[0E0],"parents":[2147483647],"right_children":[-1],"split_conditions":[-1.7204779E-7],"split_indices":[0],"split_type":[0],"sum_hessian":[1.957312E0],"tree_param":{"num_deleted":"0","num_feature":"211024","num_nodes":"1","size_leaf_vector":"1"}},{"base_weights":[-5.262543E-7],"categories":[],"categories_nodes":[],"categories_segments":[],"categories_sizes":[],"default_left":[0],"id":82,"left_children":[-1],"loss_changes":[0E0],"parents":[2147483647],"right_children":[-1],"split_conditions":[-1.578763E-7],"split_indices":[0],"split_type":[0],"sum_hessian":[1.9573121E0],"tree_param":{"num_deleted":"0","num_feature":"211024","num_nodes":"1","size_leaf_vector":"1"}},{"base_weights":[-4.777563E-7],"categories":[],"categories_nodes":[],"categories_segments":[],"categories_sizes":[],"default_left":[0],"id":83,"left_children":[-1],"loss_changes":[0E0],"parents":[2147483647],"right_children":[-1],"split_conditions":[-1.433269E-7],"split_indices":[0],"split_type":[0],"sum_hessian":[1.9573122E0],"tree_param":{"num_deleted":"0","num_feature":"211024","num_nodes":"1","size_leaf_vector":"1"}},{"base_weights":[-4.7145787E-7],"categories":[],"categories_nodes":[],"categories_segments":[],"categories_sizes":[],"default_left":[0],"id":84,"left_children":[-1],"loss_changes":[0E0],"parents":[2147483647],"right_children":[-1],"split_conditions":[-1.4143737E-7],"split_indices":[0],"split_type":[0],"sum_hessian":[1.9573121E0],"tree_param":{"num_deleted":"0","num_feature":"211024","num_nodes":"1","size_leaf_vector":"1"}},{"base_weights":[-4.6264006E-7],"categories":[],"categories_nodes":[],"categories_segments":[],"categories_sizes":[],"default_left":[0],"id":85,"left_children":[-1],"loss_changes":[0E0],"parents":[2147483647],"right_children":[-1],"split_conditions":[-1.3879202E-7],"split_indices":[0],"split_type":[0],"sum_hessian":[1.9573121E0],"tree_param":{"num_deleted":"0","num_feature":"211024","num_nodes":"1","size_leaf_vector":"1"}},{"base_weights":[-4.544521E-7],"categories":[],"categories_nodes":[],"categories_segments":[],"categories_sizes":[],"default_left":[0],"id":86,"left_children":[-1],"loss_changes":[0E0],"parents":[2147483647],"right_children":[-1],"split_conditions":[-1.3633564E-7],"split_indices":[0],"split_type":[0],"sum_hessian":[1.9573121E0],"tree_param":{"num_deleted":"0","num_feature":"211024","num_nodes":"1","size_leaf_vector":"1"}},{"base_weights":[-4.0847348E-7],"categories":[],"categories_nodes":[],"categories_segments":[],"categories_sizes":[],"default_left":[0],"id":87,"left_children":[-1],"loss_changes":[0E0],"parents":[2147483647],"right_children":[-1],"split_conditions":[-1.2254205E-7],"split_indices":[0],"split_type":[0],"sum_hessian":[1.9573122E0],"tree_param":{"num_deleted":"0","num_feature":"211024","num_nodes":"1","size_leaf_vector":"1"}},{"base_weights":[-3.9902582E-7],"categories":[],"categories_nodes":[],"categories_segments":[],"categories_sizes":[],"default_left":[0],"id":88,"left_children":[-1],"loss_changes":[0E0],"parents":[2147483647],"right_children":[-1],"split_conditions":[-1.1970775E-7],"split_indices":[0],"split_type":[0],"sum_hessian":[1.9573122E0],"tree_param":{"num_deleted":"0","num_feature":"211024","num_nodes":"1","size_leaf_vector":"1"}},{"base_weights":[-3.9272737E-7],"categories":[],"categories_nodes":[],"categories_segments":[],"categories_sizes":[],"default_left":[0],"id":89,"left_children":[-1],"loss_changes":[0E0],"parents":[2147483647],"right_children":[-1],"split_conditions":[-1.1781822E-7],"split_indices":[0],"split_type":[0],"sum_hessian":[1.9573121E0],"tree_param":{"num_deleted":"0","num_feature":"211024","num_nodes":"1","size_leaf_vector":"1"}},{"base_weights":[-3.9272737E-7],"categories":[],"categories_nodes":[],"categories_segments":[],"categories_sizes":[],"default_left":[0],"id":90,"left_children":[-1],"loss_changes":[0E0],"parents":[2147483647],"right_children":[-1],"split_conditions":[-1.1781822E-7],"split_indices":[0],"split_type":[0],"sum_hessian":[1.9573121E0],"tree_param":{"num_deleted":"0","num_feature":"211024","num_nodes":"1","size_leaf_vector":"1"}},{"base_weights":[-3.9272737E-7],"categories":[],"categories_nodes":[],"categories_segments":[],"categories_sizes":[],"default_left":[0],"id":91,"left_children":[-1],"loss_changes":[0E0],"parents":[2147483647],"right_children":[-1],"split_conditions":[-1.1781822E-7],"split_indices":[0],"split_type":[0],"sum_hessian":[1.9573121E0],"tree_param":{"num_deleted":"0","num_feature":"211024","num_nodes":"1","size_leaf_vector":"1"}},{"base_weights":[-3.9272737E-7],"categories":[],"categories_nodes":[],"categories_segments":[],"categories_sizes":[],"default_left":[0],"id":92,"left_children":[-1],"loss_changes":[0E0],"parents":[2147483647],"right_children":[-1],"split_conditions":[-1.1781822E-7],"split_indices":[0],"split_type":[0],"sum_hessian":[1.9573121E0],"tree_param":{"num_deleted":"0","num_feature":"211024","num_nodes":"1","size_leaf_vector":"1"}},{"base_weights":[-3.9272737E-7],"categories":[],"categories_nodes":[],"categories_segments":[],"categories_sizes":[],"default_left":[0],"id":93,"left_children":[-1],"loss_changes":[0E0],"parents":[2147483647],"right_children":[-1],"split_conditions":[-1.1781822E-7],"split_indices":[0],"split_type":[0],"sum_hessian":[1.9573121E0],"tree_param":{"num_deleted":"0","num_feature":"211024","num_nodes":"1","size_leaf_vector":"1"}},{"base_weights":[-3.9272737E-7],"categories":[],"categories_nodes":[],"categories_segments":[],"categories_sizes":[],"default_left":[0],"id":94,"left_children":[-1],"loss_changes":[0E0],"parents":[2147483647],"right_children":[-1],"split_conditions":[-1.1781822E-7],"split_indices":[0],"split_type":[0],"sum_hessian":[1.9573121E0],"tree_param":{"num_deleted":"0","num_feature":"211024","num_nodes":"1","size_leaf_vector":"1"}},{"base_weights":[-3.9272737E-7],"categories":[],"categories_nodes":[],"categories_segments":[],"categories_sizes":[],"default_left":[0],"id":95,"left_children":[-1],"loss_changes":[0E0],"parents":[2147483647],"right_children":[-1],"split_conditions":[-1.1781822E-7],"split_indices":[0],"split_type":[0],"sum_hessian":[1.9573121E0],"tree_param":{"num_deleted":"0","num_feature":"211024","num_nodes":"1","size_leaf_vector":"1"}},{"base_weights":[-3.9272737E-7],"categories":[],"categories_nodes":[],"categories_segments":[],"categories_sizes":[],"default_left":[0],"id":96,"left_children":[-1],"loss_changes":[0E0],"parents":[2147483647],"right_children":[-1],"split_conditions":[-1.1781822E-7],"split_indices":[0],"split_type":[0],"sum_hessian":[1.9573121E0],"tree_param":{"num_deleted":"0","num_feature":"211024","num_nodes":"1","size_leaf_vector":"1"}},{"base_weights":[-3.9272737E-7],"categories":[],"categories_nodes":[],"categories_segments":[],"categories_sizes":[],"default_left":[0],"id":97,"left_children":[-1],"loss_changes":[0E0],"parents":[2147483647],"right_children":[-1],"split_conditions":[-1.1781822E-7],"split_indices":[0],"split_type":[0],"sum_hessian":[1.9573121E0],"tree_param":{"num_deleted":"0","num_feature":"211024","num_nodes":"1","size_leaf_vector":"1"}},{"base_weights":[-3.9272737E-7],"categories":[],"categories_nodes":[],"categories_segments":[],"categories_sizes":[],"default_left":[0],"id":98,"left_children":[-1],"loss_changes":[0E0],"parents":[2147483647],"right_children":[-1],"split_conditions":[-1.1781822E-7],"split_indices":[0],"split_type":[0],"sum_hessian":[1.9573121E0],"tree_param":{"num_deleted":"0","num_feature":"211024","num_nodes":"1","size_leaf_vector":"1"}},{"base_weights":[-3.9272737E-7],"categories":[],"categories_nodes":[],"categories_segments":[],"categories_sizes":[],"default_left":[0],"id":99,"left_children":[-1],"loss_changes":[0E0],"parents":[2147483647],"right_children":[-1],"split_conditions":[-1.1781822E-7],"split_indices":[0],"split_type":[0],"sum_hessian":[1.9573121E0],"tree_param":{"num_deleted":"0","num_feature":"211024","num_nodes":"1","size_leaf_vector":"1"}}]},"name":"gbtree"},"learner_model_param":{"base_score":"4.9544546E-1","boost_from_average":"1","num_class":"0","num_feature":"211024","num_target":"1"},"objective":{"name":"binary:logistic","reg_loss_param":{"scale_pos_weight":"1"}}},"version":[2,1,4]}